<?xml version='1.0' encoding='utf-8'?>
<BIF VERSION="0.3">
  <NETWORK>
    <NAME>UNTITLED</NAME>
    <VARIABLE TYPE="nature">
      <NAME>acc_open_past_24mths</NAME>
      <OUTCOME>0_0</OUTCOME>
      <OUTCOME>1_0</OUTCOME>
      <OUTCOME>2_0</OUTCOME>
      <OUTCOME>3_0</OUTCOME>
      <PROPERTY>weight = None</PROPERTY>
    </VARIABLE>
    <VARIABLE TYPE="nature">
      <NAME>all_util</NAME>
      <OUTCOME>0_0</OUTCOME>
      <OUTCOME>2_0</OUTCOME>
      <OUTCOME>1_0</OUTCOME>
      <OUTCOME>3_0</OUTCOME>
      <PROPERTY>weight = None</PROPERTY>
    </VARIABLE>
    <VARIABLE TYPE="nature">
      <NAME>annual_inc</NAME>
      <OUTCOME>0_0</OUTCOME>
      <OUTCOME>1_0</OUTCOME>
      <OUTCOME>2_0</OUTCOME>
      <OUTCOME>3_0</OUTCOME>
      <PROPERTY>weight = None</PROPERTY>
    </VARIABLE>
    <VARIABLE TYPE="nature">
      <NAME>application_type</NAME>
      <OUTCOME>Individual</OUTCOME>
      <OUTCOME>Joint_App</OUTCOME>
      <PROPERTY>weight = None</PROPERTY>
    </VARIABLE>
    <VARIABLE TYPE="nature">
      <NAME>avg_cur_bal</NAME>
      <OUTCOME>1_0</OUTCOME>
      <OUTCOME>0_0</OUTCOME>
      <OUTCOME>2_0</OUTCOME>
      <OUTCOME>3_0</OUTCOME>
      <PROPERTY>weight = None</PROPERTY>
    </VARIABLE>
    <VARIABLE TYPE="nature">
      <NAME>bc_open_to_buy</NAME>
      <OUTCOME>0_0</OUTCOME>
      <OUTCOME>2_0</OUTCOME>
      <OUTCOME>1_0</OUTCOME>
      <OUTCOME>3_0</OUTCOME>
      <PROPERTY>weight = None</PROPERTY>
    </VARIABLE>
    <VARIABLE TYPE="nature">
      <NAME>bc_util</NAME>
      <OUTCOME>0_0</OUTCOME>
      <OUTCOME>1_0</OUTCOME>
      <OUTCOME>N_A</OUTCOME>
      <OUTCOME>2_0</OUTCOME>
      <OUTCOME>3_0</OUTCOME>
      <PROPERTY>weight = None</PROPERTY>
    </VARIABLE>
    <VARIABLE TYPE="nature">
      <NAME>debt_settlement_flag</NAME>
      <OUTCOME>N</OUTCOME>
      <OUTCOME>Y</OUTCOME>
      <PROPERTY>weight = None</PROPERTY>
    </VARIABLE>
    <VARIABLE TYPE="nature">
      <NAME>disbursement_method</NAME>
      <OUTCOME>Cash</OUTCOME>
      <OUTCOME>DirectPay</OUTCOME>
      <PROPERTY>weight = None</PROPERTY>
    </VARIABLE>
    <VARIABLE TYPE="nature">
      <NAME>dti</NAME>
      <OUTCOME>0_0</OUTCOME>
      <OUTCOME>3_0</OUTCOME>
      <OUTCOME>N_A</OUTCOME>
      <OUTCOME>2_0</OUTCOME>
      <OUTCOME>1_0</OUTCOME>
      <PROPERTY>weight = None</PROPERTY>
    </VARIABLE>
    <VARIABLE TYPE="nature">
      <NAME>earliest_cr_line</NAME>
      <OUTCOME>_1994_10_01_18_00_00_2015_01_01_00_00_00_</OUTCOME>
      <OUTCOME>_1974_07_02_12_00_00_1994_10_01_18_00_00_</OUTCOME>
      <OUTCOME>_1954_04_02_06_00_00_1974_07_02_12_00_00_</OUTCOME>
      <OUTCOME>_1933_12_02_09_57_36_1954_04_02_06_00_00_</OUTCOME>
      <PROPERTY>weight = None</PROPERTY>
    </VARIABLE>
    <VARIABLE TYPE="nature">
      <NAME>emp_length</NAME>
      <OUTCOME>10_years</OUTCOME>
      <OUTCOME>3_years</OUTCOME>
      <OUTCOME>4_years</OUTCOME>
      <OUTCOME>6_years</OUTCOME>
      <OUTCOME>7_years</OUTCOME>
      <OUTCOME>8_years</OUTCOME>
      <OUTCOME>2_years</OUTCOME>
      <OUTCOME>5_years</OUTCOME>
      <OUTCOME>9_years</OUTCOME>
      <OUTCOME>_1_year</OUTCOME>
      <OUTCOME>1_year</OUTCOME>
      <OUTCOME>N_A</OUTCOME>
      <PROPERTY>weight = None</PROPERTY>
    </VARIABLE>
    <VARIABLE TYPE="nature">
      <NAME>fico_range_high</NAME>
      <OUTCOME>_663_814_710_5_</OUTCOME>
      <OUTCOME>_710_5_757_0_</OUTCOME>
      <OUTCOME>_803_5_850_0_</OUTCOME>
      <OUTCOME>_757_0_803_5_</OUTCOME>
      <PROPERTY>weight = None</PROPERTY>
    </VARIABLE>
    <VARIABLE TYPE="nature">
      <NAME>grade</NAME>
      <OUTCOME>C</OUTCOME>
      <OUTCOME>B</OUTCOME>
      <OUTCOME>F</OUTCOME>
      <OUTCOME>A</OUTCOME>
      <OUTCOME>E</OUTCOME>
      <OUTCOME>D</OUTCOME>
      <OUTCOME>G</OUTCOME>
      <PROPERTY>weight = None</PROPERTY>
    </VARIABLE>
    <VARIABLE TYPE="nature">
      <NAME>home_ownership</NAME>
      <OUTCOME>MORTGAGE</OUTCOME>
      <OUTCOME>RENT</OUTCOME>
      <OUTCOME>OWN</OUTCOME>
      <OUTCOME>ANY</OUTCOME>
      <OUTCOME>NONE</OUTCOME>
      <PROPERTY>weight = None</PROPERTY>
    </VARIABLE>
    <VARIABLE TYPE="nature">
      <NAME>initial_list_status</NAME>
      <OUTCOME>w</OUTCOME>
      <OUTCOME>f</OUTCOME>
      <PROPERTY>weight = None</PROPERTY>
    </VARIABLE>
    <VARIABLE TYPE="nature">
      <NAME>inq_last_6mths</NAME>
      <OUTCOME>0_0</OUTCOME>
      <OUTCOME>3_0</OUTCOME>
      <OUTCOME>2_0</OUTCOME>
      <OUTCOME>1_0</OUTCOME>
      <PROPERTY>weight = None</PROPERTY>
    </VARIABLE>
    <VARIABLE TYPE="nature">
      <NAME>installment</NAME>
      <OUTCOME>_5_898_435_665_</OUTCOME>
      <OUTCOME>_435_665_863_72_</OUTCOME>
      <OUTCOME>_863_72_1291_775_</OUTCOME>
      <OUTCOME>_1291_775_1719_83_</OUTCOME>
      <PROPERTY>weight = None</PROPERTY>
    </VARIABLE>
    <VARIABLE TYPE="nature">
      <NAME>int_rate</NAME>
      <OUTCOME>_11_73_18_15_</OUTCOME>
      <OUTCOME>_5_284_11_73_</OUTCOME>
      <OUTCOME>_18_15_24_57_</OUTCOME>
      <OUTCOME>_24_57_30_99_</OUTCOME>
      <PROPERTY>weight = None</PROPERTY>
    </VARIABLE>
    <VARIABLE TYPE="nature">
      <NAME>issue_d</NAME>
      <OUTCOME>2015</OUTCOME>
      <OUTCOME>2018</OUTCOME>
      <OUTCOME>2017</OUTCOME>
      <OUTCOME>2016</OUTCOME>
      <PROPERTY>weight = None</PROPERTY>
    </VARIABLE>
    <VARIABLE TYPE="nature">
      <NAME>last_credit_pull_d</NAME>
      <OUTCOME>2019_0</OUTCOME>
      <OUTCOME>2018_0</OUTCOME>
      <OUTCOME>2017_0</OUTCOME>
      <OUTCOME>2016_0</OUTCOME>
      <OUTCOME>2015_0</OUTCOME>
      <OUTCOME>N_A</OUTCOME>
      <PROPERTY>weight = None</PROPERTY>
    </VARIABLE>
    <VARIABLE TYPE="nature">
      <NAME>last_fico_range_high</NAME>
      <OUTCOME>_425_0_637_5_</OUTCOME>
      <OUTCOME>_637_5_850_0_</OUTCOME>
      <OUTCOME>_0_85_212_5_</OUTCOME>
      <PROPERTY>weight = None</PROPERTY>
    </VARIABLE>
    <VARIABLE TYPE="nature">
      <NAME>last_pymnt_amnt</NAME>
      <OUTCOME>0_0</OUTCOME>
      <OUTCOME>1_0</OUTCOME>
      <OUTCOME>2_0</OUTCOME>
      <OUTCOME>3_0</OUTCOME>
      <PROPERTY>weight = None</PROPERTY>
    </VARIABLE>
    <VARIABLE TYPE="nature">
      <NAME>loan_amnt</NAME>
      <OUTCOME>_961_0_10750_0_</OUTCOME>
      <OUTCOME>_20500_0_30250_0_</OUTCOME>
      <OUTCOME>_10750_0_20500_0_</OUTCOME>
      <OUTCOME>_30250_0_40000_0_</OUTCOME>
      <PROPERTY>weight = None</PROPERTY>
    </VARIABLE>
    <VARIABLE TYPE="nature">
      <NAME>loan_status</NAME>
      <OUTCOME>Fully_Paid</OUTCOME>
      <OUTCOME>Charged_Off</OUTCOME>
      <PROPERTY>weight = None</PROPERTY>
    </VARIABLE>
    <VARIABLE TYPE="nature">
      <NAME>max_bal_bc</NAME>
      <OUTCOME>0_0</OUTCOME>
      <OUTCOME>1_0</OUTCOME>
      <OUTCOME>2_0</OUTCOME>
      <OUTCOME>3_0</OUTCOME>
      <PROPERTY>weight = None</PROPERTY>
    </VARIABLE>
    <VARIABLE TYPE="nature">
      <NAME>mo_sin_old_il_acct</NAME>
      <OUTCOME>0_0</OUTCOME>
      <OUTCOME>1_0</OUTCOME>
      <OUTCOME>N_A</OUTCOME>
      <OUTCOME>2_0</OUTCOME>
      <OUTCOME>3_0</OUTCOME>
      <PROPERTY>weight = None</PROPERTY>
    </VARIABLE>
    <VARIABLE TYPE="nature">
      <NAME>mo_sin_old_rev_tl_op</NAME>
      <OUTCOME>0_0</OUTCOME>
      <OUTCOME>1_0</OUTCOME>
      <OUTCOME>3_0</OUTCOME>
      <OUTCOME>2_0</OUTCOME>
      <PROPERTY>weight = None</PROPERTY>
    </VARIABLE>
    <VARIABLE TYPE="nature">
      <NAME>mort_acc</NAME>
      <OUTCOME>0_0</OUTCOME>
      <OUTCOME>1_0</OUTCOME>
      <OUTCOME>2_0</OUTCOME>
      <OUTCOME>3_0</OUTCOME>
      <PROPERTY>weight = None</PROPERTY>
    </VARIABLE>
    <VARIABLE TYPE="nature">
      <NAME>mths_since_recent_inq</NAME>
      <OUTCOME>0_0</OUTCOME>
      <OUTCOME>1_0</OUTCOME>
      <OUTCOME>N_A</OUTCOME>
      <OUTCOME>2_0</OUTCOME>
      <OUTCOME>3_0</OUTCOME>
      <PROPERTY>weight = None</PROPERTY>
    </VARIABLE>
    <VARIABLE TYPE="nature">
      <NAME>num_actv_bc_tl</NAME>
      <OUTCOME>0_0</OUTCOME>
      <OUTCOME>1_0</OUTCOME>
      <OUTCOME>2_0</OUTCOME>
      <OUTCOME>3_0</OUTCOME>
      <PROPERTY>weight = None</PROPERTY>
    </VARIABLE>
    <VARIABLE TYPE="nature">
      <NAME>num_actv_rev_tl</NAME>
      <OUTCOME>0_0</OUTCOME>
      <OUTCOME>1_0</OUTCOME>
      <OUTCOME>2_0</OUTCOME>
      <OUTCOME>3_0</OUTCOME>
      <PROPERTY>weight = None</PROPERTY>
    </VARIABLE>
    <VARIABLE TYPE="nature">
      <NAME>num_bc_sats</NAME>
      <OUTCOME>0_0</OUTCOME>
      <OUTCOME>1_0</OUTCOME>
      <OUTCOME>2_0</OUTCOME>
      <OUTCOME>3_0</OUTCOME>
      <PROPERTY>weight = None</PROPERTY>
    </VARIABLE>
    <VARIABLE TYPE="nature">
      <NAME>num_bc_tl</NAME>
      <OUTCOME>0_0</OUTCOME>
      <OUTCOME>1_0</OUTCOME>
      <OUTCOME>2_0</OUTCOME>
      <OUTCOME>3_0</OUTCOME>
      <PROPERTY>weight = None</PROPERTY>
    </VARIABLE>
    <VARIABLE TYPE="nature">
      <NAME>num_il_tl</NAME>
      <OUTCOME>0_0</OUTCOME>
      <OUTCOME>1_0</OUTCOME>
      <OUTCOME>2_0</OUTCOME>
      <OUTCOME>3_0</OUTCOME>
      <PROPERTY>weight = None</PROPERTY>
    </VARIABLE>
    <VARIABLE TYPE="nature">
      <NAME>num_op_rev_tl</NAME>
      <OUTCOME>0_0</OUTCOME>
      <OUTCOME>1_0</OUTCOME>
      <OUTCOME>2_0</OUTCOME>
      <OUTCOME>3_0</OUTCOME>
      <PROPERTY>weight = None</PROPERTY>
    </VARIABLE>
    <VARIABLE TYPE="nature">
      <NAME>num_rev_accts</NAME>
      <OUTCOME>0_0</OUTCOME>
      <OUTCOME>1_0</OUTCOME>
      <OUTCOME>2_0</OUTCOME>
      <OUTCOME>3_0</OUTCOME>
      <PROPERTY>weight = None</PROPERTY>
    </VARIABLE>
    <VARIABLE TYPE="nature">
      <NAME>num_tl_120dpd_2m</NAME>
      <OUTCOME>0_0</OUTCOME>
      <OUTCOME>N_A</OUTCOME>
      <OUTCOME>1_0</OUTCOME>
      <OUTCOME>2_0</OUTCOME>
      <OUTCOME>3_0</OUTCOME>
      <PROPERTY>weight = None</PROPERTY>
    </VARIABLE>
    <VARIABLE TYPE="nature">
      <NAME>num_tl_op_past_12m</NAME>
      <OUTCOME>0_0</OUTCOME>
      <OUTCOME>1_0</OUTCOME>
      <OUTCOME>2_0</OUTCOME>
      <OUTCOME>3_0</OUTCOME>
      <PROPERTY>weight = None</PROPERTY>
    </VARIABLE>
    <VARIABLE TYPE="nature">
      <NAME>open_acc</NAME>
      <OUTCOME>0_0</OUTCOME>
      <OUTCOME>1_0</OUTCOME>
      <OUTCOME>2_0</OUTCOME>
      <OUTCOME>3_0</OUTCOME>
      <PROPERTY>weight = None</PROPERTY>
    </VARIABLE>
    <VARIABLE TYPE="nature">
      <NAME>open_acc_6m</NAME>
      <OUTCOME>0_0</OUTCOME>
      <OUTCOME>1_0</OUTCOME>
      <OUTCOME>2_0</OUTCOME>
      <OUTCOME>3_0</OUTCOME>
      <PROPERTY>weight = None</PROPERTY>
    </VARIABLE>
    <VARIABLE TYPE="nature">
      <NAME>open_act_il</NAME>
      <OUTCOME>0_0</OUTCOME>
      <OUTCOME>1_0</OUTCOME>
      <OUTCOME>2_0</OUTCOME>
      <OUTCOME>3_0</OUTCOME>
      <PROPERTY>weight = None</PROPERTY>
    </VARIABLE>
    <VARIABLE TYPE="nature">
      <NAME>open_il_12m</NAME>
      <OUTCOME>0_0</OUTCOME>
      <OUTCOME>1_0</OUTCOME>
      <OUTCOME>2_0</OUTCOME>
      <OUTCOME>3_0</OUTCOME>
      <PROPERTY>weight = None</PROPERTY>
    </VARIABLE>
    <VARIABLE TYPE="nature">
      <NAME>open_il_24m</NAME>
      <OUTCOME>0_0</OUTCOME>
      <OUTCOME>1_0</OUTCOME>
      <OUTCOME>2_0</OUTCOME>
      <OUTCOME>3_0</OUTCOME>
      <PROPERTY>weight = None</PROPERTY>
    </VARIABLE>
    <VARIABLE TYPE="nature">
      <NAME>open_rv_12m</NAME>
      <OUTCOME>0_0</OUTCOME>
      <OUTCOME>1_0</OUTCOME>
      <OUTCOME>2_0</OUTCOME>
      <OUTCOME>3_0</OUTCOME>
      <PROPERTY>weight = None</PROPERTY>
    </VARIABLE>
    <VARIABLE TYPE="nature">
      <NAME>open_rv_24m</NAME>
      <OUTCOME>0_0</OUTCOME>
      <OUTCOME>1_0</OUTCOME>
      <OUTCOME>2_0</OUTCOME>
      <OUTCOME>3_0</OUTCOME>
      <PROPERTY>weight = None</PROPERTY>
    </VARIABLE>
    <VARIABLE TYPE="nature">
      <NAME>percent_bc_gt_75</NAME>
      <OUTCOME>0_0</OUTCOME>
      <OUTCOME>2_0</OUTCOME>
      <OUTCOME>3_0</OUTCOME>
      <OUTCOME>1_0</OUTCOME>
      <OUTCOME>N_A</OUTCOME>
      <PROPERTY>weight = None</PROPERTY>
    </VARIABLE>
    <VARIABLE TYPE="nature">
      <NAME>purpose</NAME>
      <OUTCOME>debt_consolidation</OUTCOME>
      <OUTCOME>small_business</OUTCOME>
      <OUTCOME>home_improvement</OUTCOME>
      <OUTCOME>major_purchase</OUTCOME>
      <OUTCOME>credit_card</OUTCOME>
      <OUTCOME>other</OUTCOME>
      <OUTCOME>house</OUTCOME>
      <OUTCOME>vacation</OUTCOME>
      <OUTCOME>car</OUTCOME>
      <OUTCOME>medical</OUTCOME>
      <OUTCOME>moving</OUTCOME>
      <OUTCOME>renewable_energy</OUTCOME>
      <OUTCOME>wedding</OUTCOME>
      <PROPERTY>weight = None</PROPERTY>
    </VARIABLE>
    <VARIABLE TYPE="nature">
      <NAME>recoveries</NAME>
      <OUTCOME>0_0</OUTCOME>
      <OUTCOME>1_0</OUTCOME>
      <OUTCOME>2_0</OUTCOME>
      <OUTCOME>3_0</OUTCOME>
      <PROPERTY>weight = None</PROPERTY>
    </VARIABLE>
    <VARIABLE TYPE="nature">
      <NAME>revol_bal</NAME>
      <OUTCOME>0_0</OUTCOME>
      <OUTCOME>1_0</OUTCOME>
      <OUTCOME>2_0</OUTCOME>
      <OUTCOME>3_0</OUTCOME>
      <PROPERTY>weight = None</PROPERTY>
    </VARIABLE>
    <VARIABLE TYPE="nature">
      <NAME>revol_util</NAME>
      <OUTCOME>1_0</OUTCOME>
      <OUTCOME>0_0</OUTCOME>
      <OUTCOME>2_0</OUTCOME>
      <OUTCOME>3_0</OUTCOME>
      <OUTCOME>N_A</OUTCOME>
      <PROPERTY>weight = None</PROPERTY>
    </VARIABLE>
    <VARIABLE TYPE="nature">
      <NAME>term</NAME>
      <OUTCOME>_36_months</OUTCOME>
      <OUTCOME>_60_months</OUTCOME>
      <PROPERTY>weight = None</PROPERTY>
    </VARIABLE>
    <VARIABLE TYPE="nature">
      <NAME>tot_cur_bal</NAME>
      <OUTCOME>1_0</OUTCOME>
      <OUTCOME>2_0</OUTCOME>
      <OUTCOME>0_0</OUTCOME>
      <OUTCOME>3_0</OUTCOME>
      <PROPERTY>weight = None</PROPERTY>
    </VARIABLE>
    <VARIABLE TYPE="nature">
      <NAME>total_acc</NAME>
      <OUTCOME>0_0</OUTCOME>
      <OUTCOME>2_0</OUTCOME>
      <OUTCOME>1_0</OUTCOME>
      <OUTCOME>3_0</OUTCOME>
      <PROPERTY>weight = None</PROPERTY>
    </VARIABLE>
    <VARIABLE TYPE="nature">
      <NAME>total_bal_ex_mort</NAME>
      <OUTCOME>0_0</OUTCOME>
      <OUTCOME>1_0</OUTCOME>
      <OUTCOME>2_0</OUTCOME>
      <OUTCOME>3_0</OUTCOME>
      <PROPERTY>weight = None</PROPERTY>
    </VARIABLE>
    <VARIABLE TYPE="nature">
      <NAME>total_bal_il</NAME>
      <OUTCOME>0_0</OUTCOME>
      <OUTCOME>1_0</OUTCOME>
      <OUTCOME>2_0</OUTCOME>
      <OUTCOME>3_0</OUTCOME>
      <PROPERTY>weight = None</PROPERTY>
    </VARIABLE>
    <VARIABLE TYPE="nature">
      <NAME>total_bc_limit</NAME>
      <OUTCOME>0_0</OUTCOME>
      <OUTCOME>2_0</OUTCOME>
      <OUTCOME>1_0</OUTCOME>
      <OUTCOME>3_0</OUTCOME>
      <PROPERTY>weight = None</PROPERTY>
    </VARIABLE>
    <VARIABLE TYPE="nature">
      <NAME>total_cu_tl</NAME>
      <OUTCOME>0_0</OUTCOME>
      <OUTCOME>1_0</OUTCOME>
      <OUTCOME>2_0</OUTCOME>
      <OUTCOME>3_0</OUTCOME>
      <PROPERTY>weight = None</PROPERTY>
    </VARIABLE>
    <VARIABLE TYPE="nature">
      <NAME>total_pymnt</NAME>
      <OUTCOME>0_0</OUTCOME>
      <OUTCOME>1_0</OUTCOME>
      <OUTCOME>2_0</OUTCOME>
      <OUTCOME>3_0</OUTCOME>
      <PROPERTY>weight = None</PROPERTY>
    </VARIABLE>
    <VARIABLE TYPE="nature">
      <NAME>total_rec_int</NAME>
      <OUTCOME>0_0</OUTCOME>
      <OUTCOME>1_0</OUTCOME>
      <OUTCOME>2_0</OUTCOME>
      <OUTCOME>3_0</OUTCOME>
      <PROPERTY>weight = None</PROPERTY>
    </VARIABLE>
    <VARIABLE TYPE="nature">
      <NAME>total_rev_hi_lim</NAME>
      <OUTCOME>0_0</OUTCOME>
      <OUTCOME>2_0</OUTCOME>
      <OUTCOME>1_0</OUTCOME>
      <OUTCOME>3_0</OUTCOME>
      <PROPERTY>weight = None</PROPERTY>
    </VARIABLE>
    <VARIABLE TYPE="nature">
      <NAME>verification_status</NAME>
      <OUTCOME>Not_Verified</OUTCOME>
      <OUTCOME>Source_Verified</OUTCOME>
      <OUTCOME>Verified</OUTCOME>
      <PROPERTY>weight = None</PROPERTY>
    </VARIABLE>
    <DEFINITION>
      <FOR>acc_open_past_24mths</FOR>
      <GIVEN>num_tl_op_past_12m</GIVEN>
      <GIVEN>open_acc</GIVEN>
      <TABLE>0.9896076 0.009025024 0.00068371394 0.00068371394 0.8780488 0.10452962 0.008710802 0.008710802 0.32 0.28 0.2 0.2 0.25 0.25 0.25 0.25 0.49541286 0.41284403 0.04587156 0.04587156 0.27142859 0.55714285 0.1 0.071428575 0.22727273 0.3181818 0.22727273 0.22727273 0.25 0.25 0.25 0.25 0.22727273 0.3181818 0.22727273 0.22727273 0.2 0.28 0.32 0.2 0.25 0.25 0.25 0.25 0.25 0.25 0.25 0.25 0.25 0.25 0.25 0.25 0.25 0.25 0.25 0.25 0.25 0.25 0.25 0.25 0.25 0.25 0.25 0.25 </TABLE>
    </DEFINITION>
    <DEFINITION>
      <FOR>all_util</FOR>
      <GIVEN>revol_util</GIVEN>
      <GIVEN>total_bal_il</GIVEN>
      <TABLE>0.20152092 0.1913815 0.58618504 0.020912547 0.06891892 0.4 0.4 0.13108107 0.062200956 0.38277513 0.28229666 0.27272728 0.2 0.22222222 0.2888889 0.2888889 0.6203624 0.06557377 0.3028473 0.011216566 0.26989618 0.25086504 0.4013841 0.07785467 0.30769232 0.25174826 0.28671327 0.15384616 0.26190478 0.1904762 0.26190478 0.2857143 0.015151516 0.5310245 0.3838384 0.06998557 0.008797654 0.5733138 0.16715543 0.25073314 0.026737968 0.4064171 0.15508021 0.4117647 0.11363637 0.38636363 0.1590909 0.3409091 0.01891253 0.43498817 0.11229315 0.43380615 0.010288066 0.40123457 0.05144033 0.537037 0.040268455 0.26845637 0.053691275 0.6375839 0.10869565 0.2826087 0.13043478 0.47826087 0.25 0.25 0.25 0.25 0.25 0.25 0.25 0.25 0.25 0.25 0.25 0.25 0.25 0.25 0.25 0.25 </TABLE>
    </DEFINITION>
    <DEFINITION>
      <FOR>annual_inc</FOR>
      <GIVEN>loan_amnt</GIVEN>
      <GIVEN>tot_cur_bal</GIVEN>
      <TABLE>0.9455782 0.0430839 0.0056689344 0.0056689344 0.74531835 0.21722846 0.018726591 0.018726591 0.97136927 0.024481328 0.002074689 0.002074689 0.3 0.36666667 0.16666667 0.16666667 0.8253164 0.1493671 0.012658228 0.012658228 0.5975104 0.36099586 0.020746889 0.020746889 0.86404294 0.11806798 0.008944544 0.008944544 0.19148937 0.59574467 0.10638298 0.10638298 0.9155405 0.0731982 0.0056306305 0.0056306305 0.7147436 0.25320512 0.016025642 0.016025642 0.95814836 0.03551046 0.003170577 0.003170577 0.30952382 0.45238096 0.11904762 0.11904762 0.6546392 0.29381442 0.025773196 0.025773196 0.41450778 0.53367877 0.025906736 0.025906736 0.6885965 0.26754385 0.021929825 0.021929825 0.14545454 0.6727273 0.09090909 0.09090909 </TABLE>
    </DEFINITION>
    <DEFINITION>
      <FOR>application_type</FOR>
      <GIVEN>issue_d</GIVEN>
      <GIVEN>term</GIVEN>
      <TABLE>0.9746835 0.025316456 0.91780823 0.08219178 0.9036918 0.09630819 0.8060345 0.19396552 0.9309436 0.06905641 0.8660287 0.13397129 0.9879518 0.012048192 0.96574587 0.034254145 </TABLE>
    </DEFINITION>
    <DEFINITION>
      <FOR>avg_cur_bal</FOR>
      <GIVEN>open_acc</GIVEN>
      <GIVEN>total_bal_ex_mort</GIVEN>
      <TABLE>0.22222222 0.69724935 0.070032574 0.010495838 0.4116959 0.43567252 0.1362573 0.01637427 0.48557693 0.13942307 0.3028846 0.072115384 0.25 0.25 0.25 0.25 0.124 0.828 0.028 0.02 0.23006135 0.72392637 0.030674847 0.015337423 0.4408602 0.38709676 0.10752688 0.06451613 0.25 0.25 0.25 0.25 0.23809524 0.2857143 0.23809524 0.23809524 0.22727273 0.3181818 0.22727273 0.22727273 0.29166666 0.29166666 0.20833333 0.20833333 0.25 0.25 0.25 0.25 0.25 0.25 0.25 0.25 0.25 0.25 0.25 0.25 0.25 0.25 0.25 0.25 0.25 0.25 0.25 0.25 </TABLE>
    </DEFINITION>
    <DEFINITION>
      <FOR>bc_open_to_buy</FOR>
      <GIVEN>total_bc_limit</GIVEN>
      <TABLE>0.99682474 0.001058425 0.001058425 0.001058425 0.981774 0.0060753343 0.0060753343 0.0060753343 0.99360615 0.0021312872 0.0021312872 0.0021312872 0.82887703 0.03208556 0.112299465 0.026737968 </TABLE>
    </DEFINITION>
    <DEFINITION>
      <FOR>bc_util</FOR>
      <GIVEN>percent_bc_gt_75</GIVEN>
      <GIVEN>revol_util</GIVEN>
      <TABLE>0.9589858 0.029082773 0.004474273 0.0037285609 0.0037285609 0.9826866 0.008358209 0.0029850747 0.0029850747 0.0029850747 0.72849464 0.2311828 0.01344086 0.01344086 0.01344086 0.44827586 0.29310346 0.0862069 0.0862069 0.0862069 0.2 0.2 0.2 0.2 0.2 0.5625 0.39673913 0.013586956 0.013586956 0.013586956 0.6231884 0.1594203 0.072463766 0.072463766 0.072463766 0.23361145 0.7485101 0.0059594754 0.0059594754 0.0059594754 0.029810298 0.9268293 0.013550135 0.016260162 0.013550135 0.2 0.2 0.2 0.2 0.2 0.09803922 0.82843137 0.024509804 0.024509804 0.024509804 0.12244898 0.5714286 0.10204082 0.10204082 0.10204082 0.041450776 0.93264246 0.008635579 0.008635579 0.008635579 0.0048685493 0.9785784 0.005842259 0.005842259 0.0048685493 0.2 0.2 0.2 0.2 0.2 0.8495575 0.12831858 0.0073746312 0.0073746312 0.0073746312 0.86577183 0.033557046 0.033557046 0.033557046 0.033557046 0.4820416 0.489603 0.009451796 0.009451796 0.009451796 0.17204301 0.6666667 0.05376344 0.05376344 0.05376344 0.2 0.2 0.2 0.2 0.2 0.23076923 0.1923077 0.1923077 0.1923077 0.1923077 0.2 0.2 0.2 0.2 0.2 0.2 0.2 0.2 0.2 0.2 0.2 0.2 0.2 0.2 0.2 0.2 0.2 0.2 0.2 0.2 </TABLE>
    </DEFINITION>
    <DEFINITION>
      <FOR>debt_settlement_flag</FOR>
      <GIVEN>loan_status</GIVEN>
      <TABLE>0.9991982 0.00080179604 0.8688341 0.13116592 </TABLE>
    </DEFINITION>
    <DEFINITION>
      <FOR>disbursement_method</FOR>
      <GIVEN>issue_d</GIVEN>
      <TABLE>0.98333335 0.016666668 0.9372781 0.06272189 0.9928401 0.0071599046 0.98881537 0.011184661 </TABLE>
    </DEFINITION>
    <DEFINITION>
      <FOR>dti</FOR>
      <GIVEN>application_type</GIVEN>
      <TABLE>0.997389 0.0006527415 0.0006527415 0.0006527415 0.0006527415 0.9307692 0.015384615 0.025641026 0.012820513 0.015384615 </TABLE>
    </DEFINITION>
    <DEFINITION>
      <FOR>earliest_cr_line</FOR>
      <GIVEN>mo_sin_old_rev_tl_op</GIVEN>
      <TABLE>0.976349 0.021198317 0.0015767344 0.00087596354 0.39648798 0.5970425 0.004158965 0.002310536 0.2173913 0.2173913 0.3043478 0.26086956 0.027027028 0.66486484 0.28108108 0.027027028 </TABLE>
    </DEFINITION>
    <DEFINITION>
      <FOR>emp_length</FOR>
      <GIVEN>mo_sin_old_rev_tl_op</GIVEN>
      <TABLE>0.28201112 0.0934238 0.0697634 0.04262352 0.03862213 0.04192763 0.11099513 0.072373 0.037926234 0.08907446 0.07132916 0.049930412 0.43874773 0.058529947 0.041288566 0.030399274 0.033121597 0.040381126 0.06079855 0.048548095 0.0353902 0.06896552 0.04310345 0.100725956 0.0952381 0.07936508 0.07936508 0.07936508 0.07936508 0.07936508 0.07936508 0.07936508 0.0952381 0.07936508 0.07936508 0.0952381 0.26666668 0.08888889 0.04 0.04888889 0.026666667 0.035555556 0.062222224 0.044444446 0.031111112 0.053333335 0.053333335 0.2488889 </TABLE>
    </DEFINITION>
    <DEFINITION>
      <FOR>fico_range_high</FOR>
      <GIVEN>revol_util</GIVEN>
      <TABLE>0.6504777 0.29936305 0.002388535 0.0477707 0.36251342 0.35069817 0.06928034 0.21750806 0.83742744 0.1518535 0.0022331397 0.008485931 0.8882072 0.10224949 0.0034083163 0.006134969 0.25 0.25 0.25 0.25 </TABLE>
    </DEFINITION>
    <DEFINITION>
      <FOR>grade</FOR>
      <GIVEN>fico_range_high</GIVEN>
      <TABLE>0.348237 0.2924391 0.029262086 0.07379135 0.0785169 0.16739367 0.010359869 0.23717277 0.30209425 0.010994764 0.3235602 0.035602093 0.083769634 0.006806283 0.1125 0.13125 0.03125 0.61875 0.03125 0.04375 0.03125 0.11971831 0.27112675 0.01584507 0.52816904 0.017605634 0.038732395 0.008802817 </TABLE>
    </DEFINITION>
    <DEFINITION>
      <FOR>home_ownership</FOR>
      <GIVEN>tot_cur_bal</GIVEN>
      <GIVEN>total_bal_il</GIVEN>
      <TABLE>0.8656476 0.029766694 0.09573612 0.0048270314 0.004022526 0.84537387 0.043092523 0.09885932 0.0063371356 0.0063371356 0.4574468 0.40425533 0.10283688 0.017730497 0.017730497 0.18461539 0.53846157 0.12307692 0.07692308 0.07692308 0.8174157 0.04775281 0.10674157 0.014044944 0.014044944 0.8337469 0.042183623 0.09677419 0.014888338 0.012406948 0.7853659 0.043902438 0.12195122 0.024390243 0.024390243 0.5217391 0.24637681 0.08695652 0.072463766 0.072463766 0.2565335 0.58966655 0.15019526 0.0021027336 0.0015019525 0.2539557 0.6044304 0.1329114 0.004746835 0.0039556962 0.23295455 0.5738636 0.13068181 0.03409091 0.028409092 0.2 0.2 0.2 0.2 0.2 0.59016395 0.08196721 0.16393442 0.08196721 0.08196721 0.5 0.1 0.2 0.1 0.1 0.4888889 0.15555556 0.13333334 0.11111111 0.11111111 0.42105263 0.13157895 0.18421052 0.13157895 0.13157895 </TABLE>
    </DEFINITION>
    <DEFINITION>
      <FOR>initial_list_status</FOR>
      <GIVEN>grade</GIVEN>
      <TABLE>0.804908 0.19509202 0.7945555 0.20544448 0.5913978 0.40860215 0.8351026 0.16489738 0.59009904 0.409901 0.68545455 0.31454545 0.71428573 0.2857143 </TABLE>
    </DEFINITION>
    <DEFINITION>
      <FOR>inq_last_6mths</FOR>
      <GIVEN>mths_since_recent_inq</GIVEN>
      <TABLE>0.749033 0.021843003 0.059840728 0.16928327 0.99156356 0.0028121485 0.0028121485 0.0028121485 0.9791667 0.0069444445 0.0069444445 0.0069444445 0.9821216 0.0059594754 0.0059594754 0.0059594754 0.9592391 0.013586956 0.013586956 0.013586956 </TABLE>
    </DEFINITION>
    <DEFINITION>
      <FOR>installment</FOR>
      <GIVEN>term</GIVEN>
      <GIVEN>verification_status</GIVEN>
      <TABLE>0.66835445 0.2956962 0.032911394 0.0030379747 0.63036925 0.26224566 0.09834213 0.009042954 0.56731945 0.26682988 0.14687882 0.018971847 0.5239787 0.44404975 0.023090586 0.008880994 0.42553192 0.47659576 0.09078014 0.0070921984 0.32427844 0.52461797 0.13752122 0.013582343 </TABLE>
    </DEFINITION>
    <DEFINITION>
      <FOR>int_rate</FOR>
      <GIVEN>grade</GIVEN>
      <TABLE>0.9934827 0.0024439918 0.00203666 0.00203666 0.0660737 0.92969084 0.0021177467 0.0021177467 0.025510205 0.025510205 0.19387755 0.75510204 0.0035137034 0.9894589 0.0035137034 0.0035137034 0.009708738 0.009708738 0.67572814 0.30485436 0.48828828 0.0045045046 0.5027027 0.0045045046 0.0625 0.075 0.0625 0.8 </TABLE>
    </DEFINITION>
    <DEFINITION>
      <FOR>issue_d</FOR>
      <GIVEN>last_credit_pull_d</GIVEN>
      <GIVEN>last_fico_range_high</GIVEN>
      <TABLE>0.02747792 0.10107949 0.33366045 0.53778213 0.030125767 0.14156187 0.3047675 0.5235449 0.25 0.25 0.25 0.25 0.040927693 0.025920874 0.39017734 0.54297405 0.045430534 0.13100898 0.36238775 0.46117273 0.25 0.25 0.25 0.25 0.08493151 0.01369863 0.073972605 0.8273973 0.057192374 0.010398613 0.26343155 0.6689775 0.25 0.25 0.25 0.25 0.3030303 0.15151516 0.15151516 0.3939394 0.07438017 0.041322313 0.049586777 0.8347107 0.25 0.25 0.25 0.25 0.25 0.25 0.25 0.25 0.25 0.25 0.25 0.25 0.25 0.25 0.25 0.25 0.25 0.25 0.25 0.25 0.25 0.25 0.25 0.25 0.25 0.25 0.25 0.25 </TABLE>
    </DEFINITION>
    <DEFINITION>
      <FOR>last_credit_pull_d</FOR>
      <GIVEN>debt_settlement_flag</GIVEN>
      <GIVEN>loan_status</GIVEN>
      <TABLE>0.5807225 0.30994245 0.09191176 0.015824808 0.00079923274 0.00079923274 0.37968254 0.384127 0.21396825 0.015873017 0.0031746032 0.0031746032 0.16666667 0.16666667 0.16666667 0.16666667 0.16666667 0.16666667 0.7027027 0.22007722 0.019305019 0.019305019 0.019305019 0.019305019 </TABLE>
    </DEFINITION>
    <DEFINITION>
      <FOR>last_fico_range_high</FOR>
      <GIVEN>fico_range_high</GIVEN>
      <GIVEN>loan_status</GIVEN>
      <TABLE>0.09637077 0.9024031 0.0012260912 0.92459476 0.07188161 0.0035236082 0.034155596 0.96268183 0.0031625554 0.85493827 0.12962963 0.015432099 0.04511278 0.91729325 0.037593983 0.4090909 0.36363637 0.22727273 0.020242915 0.9696356 0.010121457 0.71014494 0.2173913 0.072463766 </TABLE>
    </DEFINITION>
    <DEFINITION>
      <FOR>last_pymnt_amnt</FOR>
      <GIVEN>loan_amnt</GIVEN>
      <GIVEN>loan_status</GIVEN>
      <GIVEN>term</GIVEN>
      <TABLE>0.9938805 0.0025197985 0.001799856 0.001799856 0.8217822 0.07920792 0.04950495 0.04950495 0.97699386 0.0076687117 0.0076687117 0.0076687117 0.7413793 0.0862069 0.0862069 0.0862069 0.38077635 0.38262478 0.22735675 0.009242144 0.12790698 0.35174417 0.50581396 0.014534884 0.90066224 0.03311258 0.03311258 0.03311258 0.92718446 0.024271844 0.024271844 0.024271844 0.62990034 0.36345515 0.003322259 0.003322259 0.27230048 0.71048516 0.0093896715 0.007824726 0.9578652 0.014044944 0.014044944 0.014044944 0.9529781 0.015673982 0.015673982 0.015673982 0.2689655 0.21724138 0.32068965 0.19310345 0.09042553 0.07446808 0.30851063 0.5265958 0.8333333 0.055555556 0.055555556 0.055555556 0.85294116 0.04901961 0.04901961 0.04901961 </TABLE>
    </DEFINITION>
    <DEFINITION>
      <FOR>loan_amnt</FOR>
      <GIVEN>installment</GIVEN>
      <GIVEN>term</GIVEN>
      <TABLE>0.8647134 0.0012738854 0.13273886 0.0012738854 0.15676358 0.01011378 0.82680154 0.0063211126 0.003486345 0.23242301 0.76118535 0.0029052875 0.0055555557 0.5388889 0.30444443 0.15111111 0.008756568 0.45884413 0.008756568 0.5236427 0.030674847 0.19631901 0.030674847 0.74233127 0.07575758 0.07575758 0.07575758 0.77272725 0.2173913 0.2173913 0.2173913 0.3478261 </TABLE>
    </DEFINITION>
    <DEFINITION>
      <FOR>loan_status</FOR>
      <GIVEN>grade</GIVEN>
      <TABLE>0.7615542 0.2384458 0.8336878 0.1663122 0.41935483 0.58064514 0.93064404 0.06935598 0.5980198 0.4019802 0.6490909 0.35090908 0.42857143 0.5714286 </TABLE>
    </DEFINITION>
    <DEFINITION>
      <FOR>max_bal_bc</FOR>
      <GIVEN>revol_bal</GIVEN>
      <GIVEN>total_bc_limit</GIVEN>
      <TABLE>0.86717695 0.1294462 0.002251238 0.001125619 0.56304985 0.3900293 0.032258064 0.014662757 0.6166329 0.36308315 0.016903313 0.0033806625 0.5254237 0.2881356 0.10169491 0.084745765 0.5503597 0.39568347 0.035971224 0.017985612 0.08564815 0.5601852 0.3425926 0.011574074 0.16028708 0.63755983 0.19617225 0.0059808614 0.071428575 0.45918366 0.41836736 0.05102041 0.35897437 0.3846154 0.12820514 0.12820514 0.17045455 0.27272728 0.5 0.056818184 0.203125 0.5 0.21875 0.078125 0.084745765 0.18644068 0.6440678 0.084745765 0.36 0.24 0.2 0.2 0.22727273 0.3181818 0.22727273 0.22727273 0.2962963 0.33333334 0.18518518 0.18518518 0.19354838 0.16129032 0.4516129 0.19354838 </TABLE>
    </DEFINITION>
    <DEFINITION>
      <FOR>mo_sin_old_il_acct</FOR>
      <GIVEN>total_bal_il</GIVEN>
      <TABLE>0.91045994 0.04171754 0.045584045 0.0012210013 0.001017501 0.9345948 0.059234884 0.0020567668 0.0020567668 0.0020567668 0.88467616 0.09162717 0.007898894 0.007898894 0.007898894 0.73770493 0.13934426 0.040983606 0.040983606 0.040983606 </TABLE>
    </DEFINITION>
    <DEFINITION>
      <FOR>mo_sin_old_rev_tl_op</FOR>
      <GIVEN>total_rev_hi_lim</GIVEN>
      <TABLE>0.7698383 0.2143663 0.001504325 0.014291087 0.44444445 0.4722222 0.010683761 0.072649576 0.6252244 0.34201077 0.0022441652 0.030520646 0.1969697 0.6212121 0.07575758 0.10606061 </TABLE>
    </DEFINITION>
    <DEFINITION>
      <FOR>mort_acc</FOR>
      <GIVEN>home_ownership</GIVEN>
      <GIVEN>tot_cur_bal</GIVEN>
      <TABLE>0.544586 0.38110402 0.06953291 0.00477707 0.37014562 0.48058254 0.13470873 0.014563107 0.7764128 0.2006552 0.018018018 0.004914005 0.27272728 0.36363637 0.27272728 0.09090909 0.7909091 0.14090909 0.045454547 0.022727273 0.5 0.3 0.11666667 0.083333336 0.9512884 0.041298978 0.005647723 0.0017649136 0.22727273 0.27272728 0.27272728 0.22727273 0.54273504 0.35470086 0.081196584 0.021367522 0.42592594 0.3888889 0.1388889 0.046296295 0.9051724 0.07614943 0.011494253 0.007183908 0.27272728 0.27272728 0.27272728 0.18181819 0.23809524 0.2857143 0.23809524 0.23809524 0.2857143 0.23809524 0.23809524 0.23809524 0.29166666 0.25 0.25 0.20833333 0.25 0.25 0.25 0.25 0.25 0.25 0.25 0.25 0.25 0.25 0.25 0.25 0.25 0.25 0.25 0.25 0.25 0.25 0.25 0.25 </TABLE>
    </DEFINITION>
    <DEFINITION>
      <FOR>mths_since_recent_inq</FOR>
      <GIVEN>total_acc</GIVEN>
      <TABLE>0.47474134 0.23189288 0.12416311 0.11594644 0.05325624 0.6139778 0.20378837 0.051600263 0.09536251 0.035271063 0.5626276 0.21851599 0.07624234 0.09836624 0.044247787 0.7014493 0.17971015 0.026086956 0.06666667 0.026086956 </TABLE>
    </DEFINITION>
    <DEFINITION>
      <FOR>num_actv_bc_tl</FOR>
      <GIVEN>num_bc_sats</GIVEN>
      <TABLE>0.98773086 0.010949868 0.00065963063 0.00065963063 0.49430525 0.48063782 0.013667426 0.011389522 0.2 0.425 0.25 0.125 0.23809524 0.2857143 0.23809524 0.23809524 </TABLE>
    </DEFINITION>
    <DEFINITION>
      <FOR>num_actv_rev_tl</FOR>
      <GIVEN>num_actv_bc_tl</GIVEN>
      <GIVEN>total_acc</GIVEN>
      <TABLE>0.99479324 0.002143951 0.0015313936 0.0015313936 0.9408411 0.051318604 0.0042765504 0.003563792 0.97769123 0.018767705 0.0017705383 0.0017705383 0.85263157 0.112280704 0.01754386 0.01754386 0.5277778 0.19444445 0.1388889 0.1388889 0.35915494 0.556338 0.049295776 0.03521127 0.46875 0.453125 0.0390625 0.0390625 0.16901408 0.63380283 0.12676056 0.07042254 0.25 0.25 0.25 0.25 0.23809524 0.23809524 0.2857143 0.23809524 0.23809524 0.2857143 0.23809524 0.23809524 0.20833333 0.29166666 0.29166666 0.20833333 0.25 0.25 0.25 0.25 0.25 0.25 0.25 0.25 0.25 0.25 0.25 0.25 0.25 0.25 0.25 0.25 </TABLE>
    </DEFINITION>
    <DEFINITION>
      <FOR>num_bc_sats</FOR>
      <GIVEN>total_bc_limit</GIVEN>
      <TABLE>0.9902625 0.0076206606 0.001058425 0.001058425 0.77156746 0.2089915 0.012150669 0.007290401 0.9279625 0.06692242 0.0029838022 0.0021312872 0.48128343 0.3957219 0.09625668 0.026737968 </TABLE>
    </DEFINITION>
    <DEFINITION>
      <FOR>num_bc_tl</FOR>
      <GIVEN>num_bc_sats</GIVEN>
      <TABLE>0.9858839 0.012796834 0.00065963063 0.00065963063 0.667426 0.30523917 0.01594533 0.011389522 0.125 0.6 0.15 0.125 0.23809524 0.23809524 0.2857143 0.23809524 </TABLE>
    </DEFINITION>
    <DEFINITION>
      <FOR>num_il_tl</FOR>
      <GIVEN>total_acc</GIVEN>
      <TABLE>0.9954282 0.0015239257 0.0015239257 0.0015239257 0.9344692 0.05897772 0.00327654 0.00327654 0.9948858 0.0017047392 0.0017047392 0.0017047392 0.61764705 0.32941177 0.03529412 0.01764706 </TABLE>
    </DEFINITION>
    <DEFINITION>
      <FOR>num_op_rev_tl</FOR>
      <GIVEN>num_rev_accts</GIVEN>
      <GIVEN>open_acc</GIVEN>
      <TABLE>0.9979126 0.0006957974 0.0006957974 0.0006957974 0.85 0.12368421 0.013157895 0.013157895 0.2857143 0.23809524 0.23809524 0.23809524 0.25 0.25 0.25 0.25 0.93670887 0.021097047 0.021097047 0.021097047 0.39694658 0.5648855 0.01908397 0.01908397 0.29166666 0.25 0.25 0.20833333 0.25 0.25 0.25 0.25 0.2857143 0.23809524 0.23809524 0.23809524 0.1923077 0.42307693 0.1923077 0.1923077 0.22727273 0.22727273 0.3181818 0.22727273 0.25 0.25 0.25 0.25 0.25 0.25 0.25 0.25 0.23809524 0.2857143 0.23809524 0.23809524 0.25 0.25 0.25 0.25 0.25 0.25 0.25 0.25 </TABLE>
    </DEFINITION>
    <DEFINITION>
      <FOR>num_rev_accts</FOR>
      <GIVEN>num_bc_tl</GIVEN>
      <GIVEN>total_rev_hi_lim</GIVEN>
      <TABLE>0.98351026 0.014404852 0.0011372252 0.00094768766 0.8351064 0.13829787 0.013297873 0.013297873 0.9158439 0.07945463 0.0023507287 0.0023507287 0.7017544 0.12280702 0.0877193 0.0877193 0.30645162 0.5322581 0.08064516 0.08064516 0.21818182 0.6636364 0.07272727 0.045454547 0.20833333 0.68333334 0.06666667 0.041666668 0.2857143 0.35714287 0.17857143 0.17857143 0.25 0.25 0.25 0.25 0.22727273 0.22727273 0.27272728 0.27272728 0.23809524 0.2857143 0.23809524 0.23809524 0.23809524 0.23809524 0.2857143 0.23809524 0.25 0.25 0.25 0.25 0.25 0.25 0.25 0.25 0.25 0.25 0.25 0.25 0.25 0.25 0.25 0.25 </TABLE>
    </DEFINITION>
    <DEFINITION>
      <FOR>num_tl_120dpd_2m</FOR>
      <GIVEN>num_bc_sats</GIVEN>
      <TABLE>0.96176666 0.035464734 0.0014502307 0.00065919576 0.00065919576 0.75 0.21621622 0.011261261 0.011261261 0.011261261 0.31111112 0.35555556 0.11111111 0.11111111 0.11111111 0.1923077 0.23076923 0.1923077 0.1923077 0.1923077 </TABLE>
    </DEFINITION>
    <DEFINITION>
      <FOR>num_tl_op_past_12m</FOR>
      <GIVEN>open_acc_6m</GIVEN>
      <TABLE>0.9871599 0.011568777 0.0006356471 0.0006356471 0.57738096 0.3392857 0.05357143 0.029761905 0.1923077 0.30769232 0.30769232 0.1923077 0.25 0.25 0.25 0.25 </TABLE>
    </DEFINITION>
    <DEFINITION>
      <FOR>open_acc</FOR>
      <GIVEN>num_actv_rev_tl</GIVEN>
      <GIVEN>total_acc</GIVEN>
      <TABLE>0.99542266 0.0015257858 0.0015257858 0.0015257858 0.81100655 0.18175235 0.0036205647 0.0036205647 0.9745673 0.02190039 0.0017661604 0.0017661604 0.5207547 0.4301887 0.03018868 0.018867925 0.375 0.20833333 0.20833333 0.20833333 0.26708075 0.6708075 0.031055901 0.031055901 0.6393443 0.27868852 0.040983606 0.040983606 0.16853933 0.6966292 0.07865169 0.056179777 0.25 0.25 0.25 0.25 0.20833333 0.375 0.20833333 0.20833333 0.25 0.25 0.25 0.25 0.1923077 0.34615386 0.26923078 0.1923077 0.25 0.25 0.25 0.25 0.25 0.25 0.25 0.25 0.25 0.25 0.25 0.25 0.25 0.25 0.25 0.25 </TABLE>
    </DEFINITION>
    <DEFINITION>
      <FOR>open_acc_6m</FOR>
      <GIVEN>inq_last_6mths</GIVEN>
      <TABLE>0.9886036 0.009953837 0.00072129257 0.00072129257 0.6486486 0.24324325 0.06306306 0.045045044 0.8417266 0.11151079 0.02877698 0.017985612 0.9314888 0.054018445 0.007905139 0.0065876152 </TABLE>
    </DEFINITION>
    <DEFINITION>
      <FOR>open_act_il</FOR>
      <GIVEN>all_util</GIVEN>
      <GIVEN>open_acc</GIVEN>
      <TABLE>0.9875104 0.0041631972 0.0041631972 0.0041631972 0.8918919 0.04054054 0.033783782 0.033783782 0.2857143 0.23809524 0.23809524 0.23809524 0.25 0.25 0.25 0.25 0.9910436 0.0050623054 0.0019470406 0.0019470406 0.82122904 0.12290503 0.02793296 0.02793296 0.27272728 0.27272728 0.22727273 0.22727273 0.25 0.25 0.25 0.25 0.9931617 0.0028157684 0.002011263 0.002011263 0.9212963 0.032407407 0.023148147 0.023148147 0.3181818 0.22727273 0.22727273 0.22727273 0.25 0.25 0.25 0.25 0.9727047 0.019023987 0.004135649 0.004135649 0.369863 0.5479452 0.047945205 0.034246575 0.22727273 0.27272728 0.22727273 0.27272728 0.25 0.25 0.25 0.25 </TABLE>
    </DEFINITION>
    <DEFINITION>
      <FOR>open_il_12m</FOR>
      <GIVEN>num_tl_op_past_12m</GIVEN>
      <TABLE>0.99428356 0.004446138 0.0006351626 0.0006351626 0.7763975 0.16149068 0.031055901 0.031055901 0.4074074 0.22222222 0.18518518 0.18518518 0.25 0.25 0.25 0.25 </TABLE>
    </DEFINITION>
    <DEFINITION>
      <FOR>open_il_24m</FOR>
      <GIVEN>open_il_12m</GIVEN>
      <TABLE>0.99673694 0.002008032 0.00062751 0.00062751 0.6527778 0.19444445 0.083333336 0.06944445 0.25 0.25 0.25 0.25 0.25 0.25 0.25 0.25 </TABLE>
    </DEFINITION>
    <DEFINITION>
      <FOR>open_rv_12m</FOR>
      <GIVEN>num_tl_op_past_12m</GIVEN>
      <TABLE>0.9964431 0.0022865853 0.0006351626 0.0006351626 0.44720498 0.47826087 0.04347826 0.031055901 0.18518518 0.25925925 0.37037036 0.18518518 0.25 0.25 0.25 0.25 </TABLE>
    </DEFINITION>
    <DEFINITION>
      <FOR>open_rv_24m</FOR>
      <GIVEN>acc_open_past_24mths</GIVEN>
      <TABLE>0.9980811 0.0006396316 0.0006396316 0.0006396316 0.7614679 0.19266056 0.02293578 0.02293578 0.2 0.32 0.28 0.2 0.25 0.25 0.25 0.25 </TABLE>
    </DEFINITION>
    <DEFINITION>
      <FOR>percent_bc_gt_75</FOR>
      <GIVEN>revol_util</GIVEN>
      <GIVEN>total_bc_limit</GIVEN>
      <TABLE>0.48366922 0.17790133 0.116747744 0.21751216 0.0041695624 0.599278 0.054151624 0.018050542 0.3104693 0.018050542 0.5471464 0.10794045 0.026054591 0.3126551 0.006203474 0.47142857 0.071428575 0.071428575 0.31428573 0.071428575 0.83184856 0.04120267 0.032293987 0.08908686 0.005567929 0.89969605 0.021276595 0.015197569 0.04863222 0.015197569 0.8903437 0.024549918 0.008183306 0.06873977 0.008183306 0.7980769 0.048076924 0.048076924 0.057692308 0.048076924 0.14976174 0.36283186 0.3131382 0.17086454 0.003403676 0.15053764 0.3655914 0.09139785 0.3655914 0.02688172 0.1767594 0.3584288 0.14893617 0.30769232 0.008183306 0.20754717 0.26415095 0.11320755 0.3207547 0.094339624 0.03306613 0.21743487 0.7024048 0.04208417 0.00501002 0.06306306 0.2972973 0.5225225 0.072072074 0.045045044 0.020100502 0.2562814 0.63316584 0.07788945 0.012562814 0.125 0.3 0.275 0.175 0.125 0.2 0.2 0.2 0.2 0.2 0.2 0.2 0.2 0.2 0.2 0.2 0.2 0.2 0.2 0.2 0.2 0.2 0.2 0.2 0.2 </TABLE>
    </DEFINITION>
    <DEFINITION>
      <FOR>purpose</FOR>
      <GIVEN>home_ownership</GIVEN>
      <TABLE>0.5601794 0.009220035 0.108896084 0.022427112 0.20134562 0.05606778 0.0064789434 0.006977324 0.008472464 0.012708697 0.0039870422 0.0019935211 0.0012459507 0.58653843 0.01570513 0.017948719 0.027884616 0.20064102 0.07724359 0.0125 0.009615385 0.013141026 0.016346155 0.018269232 0.0025641026 0.0016025641 0.47348484 0.014204546 0.10606061 0.025568182 0.21212122 0.07575758 0.017992424 0.011363637 0.014204546 0.03219697 0.007575758 0.0047348486 0.0047348486 0.112676054 0.07042254 0.08450704 0.07042254 0.07042254 0.07042254 0.08450704 0.07042254 0.08450704 0.07042254 0.07042254 0.07042254 0.07042254 0.07692308 0.07692308 0.07692308 0.07692308 0.07692308 0.07692308 0.07692308 0.07692308 0.07692308 0.07692308 0.07692308 0.07692308 0.07692308 </TABLE>
    </DEFINITION>
    <DEFINITION>
      <FOR>recoveries</FOR>
      <GIVEN>loan_status</GIVEN>
      <TABLE>0.99759847 0.0008005123 0.0008005123 0.0008005123 0.9877369 0.00613155 0.0033444816 0.002787068 </TABLE>
    </DEFINITION>
    <DEFINITION>
      <FOR>revol_bal</FOR>
      <GIVEN>revol_util</GIVEN>
      <GIVEN>total_rev_hi_lim</GIVEN>
      <TABLE>0.99055415 0.0031486147 0.0031486147 0.0031486147 0.03311258 0.7549669 0.17880794 0.03311258 0.63399506 0.35359803 0.006203474 0.006203474 0.22222222 0.18518518 0.37037036 0.22222222 0.9859155 0.0046948357 0.0046948357 0.0046948357 0.53807104 0.3604061 0.07614213 0.02538071 0.9614148 0.022508038 0.008038585 0.008038585 0.15789473 0.21052632 0.34210527 0.28947368 0.95660263 0.03719777 0.003099814 0.003099814 0.057692308 0.42307693 0.47115386 0.048076924 0.057866186 0.92224234 0.01084991 0.009041592 0.1724138 0.1724138 0.2413793 0.41379312 0.77697843 0.21402878 0.004496403 0.004496403 0.065789476 0.078947365 0.7894737 0.065789476 0.019543974 0.8762215 0.08794788 0.016286645 0.15625 0.15625 0.1875 0.5 0.25 0.25 0.25 0.25 0.25 0.25 0.25 0.25 0.25 0.25 0.25 0.25 0.25 0.25 0.25 0.25 </TABLE>
    </DEFINITION>
    <DEFINITION>
      <FOR>revol_util</FOR>
      <TABLE>0.31115264 0.23015577 0.27713394 0.18093458 0.00062305294 </TABLE>
    </DEFINITION>
    <DEFINITION>
      <FOR>term</FOR>
      <GIVEN>grade</GIVEN>
      <GIVEN>initial_list_status</GIVEN>
      <TABLE>0.68220985 0.31779018 0.9294606 0.07053942 0.85958356 0.14041644 0.94877046 0.051229507 0.12173913 0.87826085 0.43209878 0.56790125 0.96118146 0.038818564 0.9705882 0.029411765 0.22772278 0.77227724 0.8207547 0.17924528 0.5256917 0.4743083 0.92022794 0.07977208 0.2 0.8 0.44 0.56 </TABLE>
    </DEFINITION>
    <DEFINITION>
      <FOR>tot_cur_bal</FOR>
      <GIVEN>avg_cur_bal</GIVEN>
      <GIVEN>total_acc</GIVEN>
      <TABLE>0.741433 0.040498443 0.21028037 0.007788162 0.57761735 0.3772563 0.03429603 0.010830325 0.7319475 0.20787746 0.053610504 0.0065645515 0.3442623 0.5409836 0.040983606 0.07377049 0.018924732 0.0021505377 0.9767742 0.0021505377 0.29930395 0.012761021 0.68213457 0.005800464 0.11256396 0.002842524 0.881751 0.002842524 0.38139534 0.069767445 0.5255814 0.023255814 0.49833888 0.4551495 0.026578072 0.019933555 0.12587413 0.61538464 0.034965035 0.22377622 0.24727273 0.6618182 0.018181818 0.07272727 0.12195122 0.46341464 0.12195122 0.29268292 0.1780822 0.47945204 0.06849315 0.2739726 0.18518518 0.22222222 0.18518518 0.4074074 0.13333334 0.31111112 0.11111111 0.44444445 0.22727273 0.22727273 0.22727273 0.3181818 </TABLE>
    </DEFINITION>
    <DEFINITION>
      <FOR>total_acc</FOR>
      <GIVEN>num_rev_accts</GIVEN>
      <GIVEN>total_bal_ex_mort</GIVEN>
      <TABLE>0.53464985 0.09179009 0.3677089 0.005851161 0.17561762 0.3319012 0.4452202 0.04726101 0.09765625 0.43359375 0.296875 0.171875 0.25 0.25 0.25 0.25 0.01650165 0.70627064 0.05610561 0.22112212 0.029069768 0.47674417 0.029069768 0.4651163 0.104166664 0.1875 0.104166664 0.6041667 0.25 0.25 0.25 0.25 0.20833333 0.20833333 0.20833333 0.375 0.20833333 0.20833333 0.20833333 0.375 0.23809524 0.23809524 0.23809524 0.2857143 0.25 0.25 0.25 0.25 0.23809524 0.23809524 0.23809524 0.2857143 0.25 0.25 0.25 0.25 0.25 0.25 0.25 0.25 0.25 0.25 0.25 0.25 </TABLE>
    </DEFINITION>
    <DEFINITION>
      <FOR>total_bal_ex_mort</FOR>
      <GIVEN>revol_bal</GIVEN>
      <TABLE>0.79651815 0.1825587 0.02012458 0.0007985945 0.4722222 0.4709596 0.053661615 0.0031565656 0.07368421 0.6315789 0.26842105 0.02631579 0.17777778 0.2 0.51111114 0.11111111 </TABLE>
    </DEFINITION>
    <DEFINITION>
      <FOR>total_bal_il</FOR>
      <GIVEN>revol_bal</GIVEN>
      <GIVEN>total_bal_ex_mort</GIVEN>
      <TABLE>0.79028386 0.20771691 0.0009996002 0.0009996002 0.008635579 0.67271155 0.31433505 0.0043177893 0.035460994 0.035460994 0.4397163 0.4893617 0.25 0.25 0.25 0.25 0.9279161 0.05897772 0.00655308 0.00655308 0.17345598 0.66622865 0.15374507 0.0065703024 0.05 0.05 0.58 0.32 0.25 0.25 0.25 0.25 0.44827586 0.20689656 0.1724138 0.1724138 0.6148148 0.2888889 0.05925926 0.037037037 0.18181819 0.33333334 0.36363637 0.121212125 0.25 0.25 0.25 0.25 0.3478261 0.2173913 0.2173913 0.2173913 0.29166666 0.20833333 0.29166666 0.20833333 0.34210527 0.23684211 0.21052632 0.21052632 0.25 0.25 0.25 0.25 </TABLE>
    </DEFINITION>
    <DEFINITION>
      <FOR>total_bc_limit</FOR>
      <GIVEN>fico_range_high</GIVEN>
      <GIVEN>loan_amnt</GIVEN>
      <TABLE>0.804008 0.026853707 0.16472946 0.0044088177 0.4549125 0.1359354 0.3822342 0.0269179 0.6462725 0.051413883 0.29305914 0.009254498 0.31043956 0.22527473 0.3901099 0.07417583 0.5699482 0.09455959 0.3238342 0.0116580315 0.27272728 0.2506887 0.41597795 0.060606062 0.4106583 0.14890282 0.41379312 0.026645768 0.21978022 0.32967034 0.32417583 0.12637363 0.26923078 0.2820513 0.2948718 0.15384616 0.23529412 0.3529412 0.20588236 0.20588236 0.25 0.26785713 0.32142857 0.16071428 0.24324325 0.27027026 0.24324325 0.24324325 0.3852459 0.2090164 0.352459 0.05327869 0.21568628 0.2254902 0.37254903 0.18627451 0.2611111 0.2888889 0.3611111 0.08888889 0.16091955 0.33333334 0.33333334 0.1724138 </TABLE>
    </DEFINITION>
    <DEFINITION>
      <FOR>total_cu_tl</FOR>
      <GIVEN>num_il_tl</GIVEN>
      <TABLE>0.9974425 0.0012787724 0.0006393862 0.0006393862 0.8962264 0.056603774 0.023584906 0.023584906 0.44444445 0.18518518 0.18518518 0.18518518 0.2857143 0.23809524 0.23809524 0.23809524 </TABLE>
    </DEFINITION>
    <DEFINITION>
      <FOR>total_pymnt</FOR>
      <GIVEN>installment</GIVEN>
      <GIVEN>loan_amnt</GIVEN>
      <GIVEN>loan_status</GIVEN>
      <TABLE>0.9947534 0.0017488633 0.0017488633 0.0017488633 0.97822934 0.007256894 0.007256894 0.007256894 0.2173913 0.3478261 0.2173913 0.2173913 0.25 0.25 0.25 0.25 0.6314655 0.3577586 0.005387931 0.005387931 0.9422383 0.02166065 0.018050542 0.018050542 0.25 0.25 0.25 0.25 0.25 0.25 0.25 0.25 0.25 0.25 0.25 0.25 0.2857143 0.23809524 0.23809524 0.23809524 0.00755287 0.7885196 0.19637462 0.00755287 0.81422925 0.14624506 0.019762846 0.019762846 0.054276317 0.9375 0.0041118423 0.0041118423 0.9120603 0.06281407 0.012562814 0.012562814 0.041322313 0.041322313 0.8677686 0.049586777 0.52 0.28 0.1 0.1 0.25 0.25 0.25 0.25 0.25 0.25 0.25 0.25 0.022727273 0.2590909 0.6909091 0.027272727 0.6730769 0.23076923 0.048076924 0.048076924 0.25 0.25 0.25 0.25 0.25 0.25 0.25 0.25 0.015432099 0.015432099 0.91049385 0.058641974 0.65873015 0.26190478 0.03968254 0.03968254 0.25 0.25 0.25 0.25 0.25 0.25 0.25 0.25 0.25 0.25 0.25 0.25 0.25 0.25 0.25 0.25 0.25 0.25 0.25 0.25 0.25 0.25 0.25 0.25 0.094339624 0.094339624 0.49056605 0.3207547 0.41666666 0.25 0.19444445 0.1388889 </TABLE>
    </DEFINITION>
    <DEFINITION>
      <FOR>total_rec_int</FOR>
      <GIVEN>int_rate</GIVEN>
      <GIVEN>loan_amnt</GIVEN>
      <TABLE>0.9892627 0.003579098 0.003579098 0.003579098 0.81663114 0.15991472 0.012793177 0.010660981 0.9774224 0.013170273 0.004703669 0.004703669 0.61172163 0.34798536 0.021978023 0.01831502 0.991453 0.0028490028 0.0028490028 0.0028490028 0.95869565 0.019565217 0.010869565 0.010869565 0.9876543 0.004115226 0.004115226 0.004115226 0.8530612 0.10612245 0.020408163 0.020408163 0.9577465 0.014084507 0.014084507 0.014084507 0.6615385 0.26666668 0.046153847 0.025641026 0.8828338 0.089918256 0.013623978 0.013623978 0.57608694 0.3043478 0.06521739 0.054347824 0.81707317 0.06097561 0.06097561 0.06097561 0.5 0.33050847 0.12711865 0.042372882 0.7873563 0.15517241 0.028735632 0.028735632 0.5 0.26666668 0.15 0.083333336 </TABLE>
    </DEFINITION>
    <DEFINITION>
      <FOR>total_rev_hi_lim</FOR>
      <GIVEN>total_bc_limit</GIVEN>
      <TABLE>0.93247247 0.00508044 0.05990686 0.00254022 0.0060753343 0.28675577 0.6925881 0.014580802 0.3849105 0.025575448 0.5839727 0.005541347 0.026737968 0.7914438 0.026737968 0.15508021 </TABLE>
    </DEFINITION>
    <DEFINITION>
      <FOR>verification_status</FOR>
      <GIVEN>grade</GIVEN>
      <TABLE>0.25510204 0.4408163 0.30408162 0.34168082 0.44100168 0.21731749 0.12041885 0.40314135 0.4764398 0.5253879 0.32440057 0.15021157 0.16862746 0.44117647 0.39019608 0.21900453 0.40723982 0.37375566 0.093333334 0.30666667 0.6 </TABLE>
    </DEFINITION>
  </NETWORK>
</BIF>
